


float rec_weight_ih_l0[][27] =  {{-0.029231837019324303, -0.3149751126766205, -0.5631013512611389, 0.6397935748100281, -0.03381464630365372, 0.639824390411377, -0.22903455793857574, 0.15575867891311646, -0.30347883701324463, 0.08316066116094589, 0.4032779335975647, -0.10985194146633148, -0.0464772954583168, 0.06623080372810364, 0.3327423632144928, 0.5125880837440491, 0.5497733354568481, 1.3290865421295166, -0.4052441120147705, -0.297264963388443, 0.5754965543746948, 0.44692426919937134, -0.6242079734802246, 0.815628170967102, -0.20662333071231842, -1.0047993659973145, -1.3757998943328857}}; 

float rec_weight_hh_l0[][27] =  {{0.1051379069685936, 0.12829001247882843, 0.2898087501525879, -0.16671307384967804, -0.036237336695194244, 0.21648991107940674, -0.533916711807251, -0.22937588393688202, -0.2554420232772827, 0.4378296136856079, 0.7202093005180359, -0.34362006187438965, -0.03987767547369003, 0.24171796441078186, 0.3179763853549957, -0.08093664795160294, -0.1592325121164322, -0.8755542635917664, 1.0315083265304565, 0.2086344212293625, 0.25012683868408203, -0.42073965072631836, 0.6137024760246277, -0.34524330496788025, -0.11390731483697891, 0.10597434639930725, 0.1194741502404213}, 
								 { 0.43965113162994385, 0.738184928894043, 0.033683791756629944, 1.0302988290786743, 0.27513888478279114, 0.4837151765823364, -1.6229397058486938, -0.31622952222824097, -0.4863312542438507, 0.4809456467628479, -0.03827214986085892, 0.11768703907728195, 0.3078615367412567, -0.40359431505203247, -0.18817006051540375, -0.04770904406905174, 0.6481425762176514, -0.45995381474494934, -0.19886450469493866, 0.5704367160797119, -0.5202093124389648, 0.3056955635547638, -0.12838459014892578, -0.6685692667961121, 0.16949783265590668, 0.8921375274658203, 0.6648041009902954}, 
								 { -0.1829013079404831, 0.6881493926048279, -0.8046470284461975, -0.0994800254702568, 0.4374733567237854, -0.37969136238098145, -0.16229309141635895, -0.22432197630405426, 0.4301200211048126, -0.3332682251930237, 0.10536666959524155, -0.25979530811309814, 0.07235642522573471, -0.2359481006860733, 0.24771596491336823, -0.16564849019050598, -0.1100655049085617, 0.2774718701839447, -0.30172452330589294, -0.5792653560638428, 1.020783543586731, -0.5949492454528809, -0.20587550103664398, -0.9724681377410889, 0.4123700261116028, 0.6416595578193665, 0.9461540579795837}, 
								 { 0.4748248755931854, -0.16523489356040955, -1.0247730016708374, -0.4438347816467285, -0.04162002354860306, 0.6843292713165283, 0.5461495518684387, 0.10365315526723862, -0.12791401147842407, 0.15804877877235413, 0.2241111546754837, 0.3072376549243927, 0.40068063139915466, -0.17062169313430786, -0.24424247443675995, 1.1446821689605713, -0.3338185250759125, 1.318892002105713, -0.01969367079436779, 0.7913597822189331, 0.9232466220855713, 0.8678138852119446, -0.11184750497341156, 0.9066728949546814, -1.6418309211730957, 1.6046421527862549, -0.10345906764268875}, 
								 { 0.700103759765625, -0.07411743700504303, -0.004179314710199833, -0.03865315392613411, -0.0460720993578434, -0.3688267171382904, 0.19999244809150696, 0.03791762888431549, 0.8113241195678711, 0.11560288071632385, -0.21147534251213074, -0.12836022675037384, 0.13692621886730194, 0.06355466693639755, -0.5095589756965637, -0.5651673674583435, -0.12227161973714828, 0.9299392700195312, -0.787667989730835, -0.2787342667579651, 0.3045952022075653, 0.298406720161438, 1.0309174060821533, 0.25754573941230774, 0.1290983110666275, -0.08116108179092407, -0.4077262580394745}, 
								 { 0.2238011211156845, -0.22497090697288513, 0.5864197015762329, 0.1324375718832016, 0.4805642366409302, 0.579595685005188, 0.8301312327384949, 0.0739465206861496, -0.06255380064249039, 0.41109150648117065, -0.34577304124832153, 0.4047587513923645, -0.3010903298854828, 0.182509183883667, -0.07516472041606903, -0.9580824375152588, -0.6091054081916809, -0.6514734029769897, -0.3313848674297333, 0.24173544347286224, -0.003753841854631901, -0.6665221452713013, -0.10173103958368301, 1.0094667673110962, 0.1470104604959488, -0.1860351711511612, -0.06416574865579605}, 
								 { -0.2879454791545868, 0.033979445695877075, -0.7389340996742249, 0.6795883178710938, -0.2216651737689972, -0.6759085059165955, -0.4337523877620697, -0.06621197611093521, 0.43267014622688293, -0.24790766835212708, 0.22508424520492554, -0.020133374258875847, 0.4553159177303314, 0.4158363342285156, 0.45998603105545044, -0.6455892324447632, 0.12036023288965225, -0.548229992389679, -0.4161085784435272, 0.05514499172568321, 0.5517982244491577, 0.934627890586853, -0.4454379379749298, 0.13605183362960815, 0.6199765205383301, 0.5146094560623169, 0.05348629876971245}, 
								 { 0.13508442044258118, 1.0049550533294678, -0.8912327289581299, -0.2059440165758133, 0.28257760405540466, 0.36072155833244324, -0.5177474617958069, -0.7398079633712769, -0.21730944514274597, 0.05850783362984657, 0.6801514625549316, 0.053404804319143295, 0.2902158498764038, 0.16145165264606476, 0.1559475064277649, 0.5667146444320679, -0.17303906381130219, 0.14446422457695007, -0.7537105083465576, 0.35898104310035706, -0.1059722900390625, -1.456192135810852, -0.7127645611763, -0.2942441403865814, 0.873897135257721, -0.369514524936676, -0.6184043288230896}, 
								 { 0.07483966648578644, -0.35724133253097534, -0.13003917038440704, 0.03692195191979408, 0.43310803174972534, 0.6603528261184692, 0.8366883397102356, 0.03832339122891426, -0.29808709025382996, 0.20216895639896393, 0.08641715347766876, -0.2782328128814697, -0.8476051688194275, -0.21279795467853546, 0.09541693329811096, -0.24904178082942963, -1.1415947675704956, -1.593221664428711, -0.3557261824607849, -1.6010098457336426, -0.6294101476669312, 0.6125853657722473, -0.07568871974945068, -0.8783455491065979, 0.256775826215744, -0.7667081952095032, 1.3150516748428345}}; 

float lin_weight[][9] = {{1.3266512155532837, 0.34957095980644226, 0.501087486743927, 0.21891072392463684, 1.2271435260772705, 0.43608468770980835, 1.0895591974258423, 0.7009875774383545, 0.630840003490448}}; 

float lin_bias[] =  {-0.3153194189071655}; 

float rec_bias[][27] = {{1.6665621995925903, 0.11900100111961365, 1.0300720930099487, -0.6648464798927307, 1.8063621520996094, 0.2966279089450836, 0.14621761441230774, -0.6517598628997803, -0.8084750175476074, 0.24817079305648804, 0.30441635847091675, 0.1947382092475891, 0.5575229525566101, -0.010426747612655163, 0.30423736572265625, 0.30738455057144165, 0.3932950794696808, 0.4195604920387268, -0.09829548001289368, -0.046609267592430115, -0.05279914289712906, -0.10833795368671417, -0.0716700553894043, -0.12667514383792877, -0.16283537447452545, 0.5098429918289185, 0.7824194431304932}, 
				   	   { 1.6665621995925903, 0.11900100111961365, 1.0300720930099487, -0.6648464798927307, 1.8063621520996094, 0.2966279089450836, 0.14621761441230774, -0.6517598628997803, -0.8084750175476074, 0.24812166392803192, 0.30441638827323914, 0.1947382092475891, 0.5575229525566101, -0.010421093553304672, 0.30423736572265625, 0.30738455057144165, 0.3932950794696808, 0.41956254839897156, 0.3314102292060852, -0.14917393028736115, -0.06163574755191803, 0.43613073229789734, 0.15843312442302704, 0.34317588806152344, 0.2971913814544678, -0.6883634328842163, -1.0945156812667847}}; 
float levelAdjust = 0.9;
